digraph Tree {
node [shape=box] ;
0 [label="petal width (cm) <= 0.8\nimpurity = 1.585\nsamples = 150\nvalue = [50, 50, 50]"] ;
1 [label="impurity = 0.0\nsamples = 50\nvalue = [50, 0, 0]"] ;
0 -> 1 [labeldistance=2.5, labelangle=45, headlabel="True"] ;
2 [label="petal width (cm) <= 1.75\nimpurity = 1.0\nsamples = 100\nvalue = [0, 50, 50]"] ;
0 -> 2 [labeldistance=2.5, labelangle=-45, headlabel="False"] ;
3 [label="petal length (cm) <= 4.95\nimpurity = 0.4451\nsamples = 54\nvalue = [0, 49, 5]"] ;
2 -> 3 ;
4 [label="impurity = 0.1461\nsamples = 48\nvalue = [0, 47, 1]"] ;
3 -> 4 ;
5 [label="impurity = 0.9183\nsamples = 6\nvalue = [0, 2, 4]"] ;
3 -> 5 ;
6 [label="petal length (cm) <= 4.85\nimpurity = 0.1511\nsamples = 46\nvalue = [0, 1, 45]"] ;
2 -> 6 ;
7 [label="impurity = 0.9183\nsamples = 3\nvalue = [0, 1, 2]"] ;
6 -> 7 ;
8 [label="impurity = 0.0\nsamples = 43\nvalue = [0, 0, 43]"] ;
6 -> 8 ;
}